digraph Tree {
node [shape=box] ;
0 [label="X[16] <= 102.5\ngini = 0.116\nsamples = 199523\nvalue = [187141, 12382]"] ;
1 [label="X[39] <= 47.5\ngini = 0.1\nsamples = 196788\nvalue = [186386, 10402]"] ;
0 -> 1 [labeldistance=2.5, labelangle=45, headlabel="True"] ;
2 [label="X[18] <= 1378.5\ngini = 0.019\nsamples = 123316\nvalue = [122109, 1207]"] ;
1 -> 2 ;
3 [label="X[18] <= 87.5\ngini = 0.017\nsamples = 123051\nvalue = [121970, 1081]"] ;
2 -> 3 ;
4 [label="X[17] <= 53.5\ngini = 0.012\nsamples = 116661\nvalue = [115971, 690]"] ;
3 -> 4 ;
5 [label="gini = 0.011\nsamples = 116284\nvalue = [115649, 635]"] ;
4 -> 5 ;
6 [label="gini = 0.249\nsamples = 377\nvalue = [322, 55]"] ;
4 -> 6 ;
7 [label="X[39] <= 25.5\ngini = 0.115\nsamples = 6390\nvalue = [5999, 391]"] ;
3 -> 7 ;
8 [label="gini = 0.079\nsamples = 5312\nvalue = [5093, 219]"] ;
7 -> 8 ;
9 [label="gini = 0.268\nsamples = 1078\nvalue = [906, 172]"] ;
7 -> 9 ;
10 [label="X[18] <= 1445.5\ngini = 0.499\nsamples = 265\nvalue = [139, 126]"] ;
2 -> 10 ;
11 [label="X[24] <= 63382.5\ngini = 0.467\nsamples = 218\nvalue = [137, 81]"] ;
10 -> 11 ;
12 [label="gini = 0.49\nsamples = 161\nvalue = [92, 69]"] ;
11 -> 12 ;
13 [label="gini = 0.332\nsamples = 57\nvalue = [45, 12]"] ;
11 -> 13 ;
14 [label="X[4] <= 14.5\ngini = 0.081\nsamples = 47\nvalue = [2, 45]"] ;
10 -> 14 ;
15 [label="gini = 0.0\nsamples = 37\nvalue = [0, 37]"] ;
14 -> 15 ;
16 [label="gini = 0.32\nsamples = 10\nvalue = [2, 8]"] ;
14 -> 16 ;
17 [label="X[3] <= 18.5\ngini = 0.219\nsamples = 73472\nvalue = [64277, 9195]"] ;
1 -> 17 ;
18 [label="X[18] <= 87.5\ngini = 0.359\nsamples = 30018\nvalue = [22968, 7050]"] ;
17 -> 18 ;
19 [label="X[12] <= 0.5\ngini = 0.299\nsamples = 24672\nvalue = [20150, 4522]"] ;
18 -> 19 ;
20 [label="gini = 0.165\nsamples = 11788\nvalue = [10719, 1069]"] ;
19 -> 20 ;
21 [label="gini = 0.392\nsamples = 12884\nvalue = [9431, 3453]"] ;
19 -> 21 ;
22 [label="X[12] <= 0.5\ngini = 0.499\nsamples = 5346\nvalue = [2818, 2528]"] ;
18 -> 22 ;
23 [label="gini = 0.397\nsamples = 2129\nvalue = [1547, 582]"] ;
22 -> 23 ;
24 [label="gini = 0.478\nsamples = 3217\nvalue = [1271, 1946]"] ;
22 -> 24 ;
25 [label="X[18] <= 44.5\ngini = 0.094\nsamples = 43454\nvalue = [41309, 2145]"] ;
17 -> 25 ;
26 [label="X[12] <= 0.5\ngini = 0.076\nsamples = 40216\nvalue = [38627, 1589]"] ;
25 -> 26 ;
27 [label="gini = 0.021\nsamples = 18137\nvalue = [17943, 194]"] ;
26 -> 27 ;
28 [label="gini = 0.118\nsamples = 22079\nvalue = [20684, 1395]"] ;
26 -> 28 ;
29 [label="X[12] <= 0.5\ngini = 0.284\nsamples = 3238\nvalue = [2682, 556]"] ;
25 -> 29 ;
30 [label="gini = 0.118\nsamples = 1524\nvalue = [1428, 96]"] ;
29 -> 30 ;
31 [label="gini = 0.393\nsamples = 1714\nvalue = [1254, 460]"] ;
29 -> 31 ;
32 [label="X[16] <= 112.5\ngini = 0.4\nsamples = 2735\nvalue = [755, 1980]"] ;
0 -> 32 [labeldistance=2.5, labelangle=-45, headlabel="False"] ;
33 [label="X[19] <= 2.5\ngini = 0.496\nsamples = 889\nvalue = [482, 407]"] ;
32 -> 33 ;
34 [label="X[12] <= 0.5\ngini = 0.493\nsamples = 700\nvalue = [309, 391]"] ;
33 -> 34 ;
35 [label="X[16] <= 103.5\ngini = 0.3\nsamples = 136\nvalue = [111, 25]"] ;
34 -> 35 ;
36 [label="gini = 0.0\nsamples = 9\nvalue = [0, 9]"] ;
35 -> 36 ;
37 [label="gini = 0.22\nsamples = 127\nvalue = [111, 16]"] ;
35 -> 37 ;
38 [label="X[39] <= 49.5\ngini = 0.456\nsamples = 564\nvalue = [198, 366]"] ;
34 -> 38 ;
39 [label="gini = 0.494\nsamples = 65\nvalue = [36, 29]"] ;
38 -> 39 ;
40 [label="gini = 0.439\nsamples = 499\nvalue = [162, 337]"] ;
38 -> 40 ;
41 [label="X[19] <= 4.0\ngini = 0.155\nsamples = 189\nvalue = [173, 16]"] ;
33 -> 41 ;
42 [label="X[34] <= 31.5\ngini = 0.42\nsamples = 30\nvalue = [21, 9]"] ;
41 -> 42 ;
43 [label="gini = 0.375\nsamples = 4\nvalue = [1, 3]"] ;
42 -> 43 ;
44 [label="gini = 0.355\nsamples = 26\nvalue = [20, 6]"] ;
42 -> 44 ;
45 [label="X[0] <= 88.0\ngini = 0.084\nsamples = 159\nvalue = [152, 7]"] ;
41 -> 45 ;
46 [label="gini = 0.073\nsamples = 158\nvalue = [152, 6]"] ;
45 -> 46 ;
47 [label="gini = 0.0\nsamples = 1\nvalue = [0, 1]"] ;
45 -> 47 ;
48 [label="X[12] <= 0.5\ngini = 0.252\nsamples = 1846\nvalue = [273, 1573]"] ;
32 -> 48 ;
49 [label="X[22] <= 21.0\ngini = 0.454\nsamples = 413\nvalue = [144, 269]"] ;
48 -> 49 ;
50 [label="X[39] <= 47.5\ngini = 0.5\nsamples = 250\nvalue = [125, 125]"] ;
49 -> 50 ;
51 [label="gini = 0.348\nsamples = 89\nvalue = [69, 20]"] ;
50 -> 51 ;
52 [label="gini = 0.454\nsamples = 161\nvalue = [56, 105]"] ;
50 -> 52 ;
53 [label="X[16] <= 121.5\ngini = 0.206\nsamples = 163\nvalue = [19, 144]"] ;
49 -> 53 ;
54 [label="gini = 0.291\nsamples = 102\nvalue = [18, 84]"] ;
53 -> 54 ;
55 [label="gini = 0.032\nsamples = 61\nvalue = [1, 60]"] ;
53 -> 55 ;
56 [label="X[39] <= 31.5\ngini = 0.164\nsamples = 1433\nvalue = [129, 1304]"] ;
48 -> 56 ;
57 [label="X[18] <= 825.0\ngini = 0.423\nsamples = 125\nvalue = [38, 87]"] ;
56 -> 57 ;
58 [label="gini = 0.496\nsamples = 70\nvalue = [32, 38]"] ;
57 -> 58 ;
59 [label="gini = 0.194\nsamples = 55\nvalue = [6, 49]"] ;
57 -> 59 ;
60 [label="X[5] <= 44.5\ngini = 0.129\nsamples = 1308\nvalue = [91, 1217]"] ;
56 -> 60 ;
61 [label="gini = 0.114\nsamples = 1273\nvalue = [77, 1196]"] ;
60 -> 61 ;
62 [label="gini = 0.48\nsamples = 35\nvalue = [14, 21]"] ;
60 -> 62 ;
}